digraph Tree {
node [shape=box, style="filled, rounded", color="black", fontname="helvetica"] ;
edge [fontname="helvetica"] ;
0 [label=<node &#35;0<br/>hemo &le; 12.75<br/>entropy = 0.734<br/>samples = 320<br/>value = [254, 66]<br/>class = 1>, fillcolor="#eca26c"] ;
1 [label=<node &#35;1<br/>rc &le; 3.55<br/>entropy = 0.932<br/>samples = 181<br/>value = [118, 63]<br/>class = 1>, fillcolor="#f3c4a3"] ;
0 -> 1 [labeldistance=2.5, labelangle=45, headlabel="True"] ;
2 [label=<node &#35;2<br/>pcv &le; 22.5<br/>entropy = 0.937<br/>samples = 34<br/>value = [12, 22]<br/>class = 2>, fillcolor="#a5d2f3"] ;
1 -> 2 ;
3 [label=<node &#35;3<br/>entropy = 0.0<br/>samples = 6<br/>value = [0, 6]<br/>class = 2>, fillcolor="#399de5"] ;
2 -> 3 ;
4 [label=<node &#35;4<br/>entropy = 0.985<br/>samples = 28<br/>value = [12, 16]<br/>class = 2>, fillcolor="#cee6f8"] ;
2 -> 4 ;
5 [label=<node &#35;5<br/>pot &le; 5.35<br/>entropy = 0.854<br/>samples = 147<br/>value = [106, 41]<br/>class = 1>, fillcolor="#efb286"] ;
1 -> 5 ;
6 [label=<node &#35;6<br/>entropy = 0.883<br/>samples = 136<br/>value = [95, 41]<br/>class = 1>, fillcolor="#f0b78e"] ;
5 -> 6 ;
7 [label=<node &#35;7<br/>entropy = 0.0<br/>samples = 11<br/>value = [11, 0]<br/>class = 1>, fillcolor="#e58139"] ;
5 -> 7 ;
8 [label=<node &#35;8<br/>bgr &le; 156.5<br/>entropy = 0.15<br/>samples = 139<br/>value = [136, 3]<br/>class = 1>, fillcolor="#e6843d"] ;
0 -> 8 [labeldistance=2.5, labelangle=-45, headlabel="False"] ;
9 [label=<node &#35;9<br/>entropy = 0.0<br/>samples = 128<br/>value = [128, 0]<br/>class = 1>, fillcolor="#e58139"] ;
8 -> 9 ;
10 [label=<node &#35;10<br/>age &le; 58.5<br/>entropy = 0.845<br/>samples = 11<br/>value = [8, 3]<br/>class = 1>, fillcolor="#efb083"] ;
8 -> 10 ;
11 [label=<node &#35;11<br/>entropy = 0.811<br/>samples = 4<br/>value = [1, 3]<br/>class = 2>, fillcolor="#7bbeee"] ;
10 -> 11 ;
12 [label=<node &#35;12<br/>entropy = 0.0<br/>samples = 7<br/>value = [7, 0]<br/>class = 1>, fillcolor="#e58139"] ;
10 -> 12 ;
}